,0,1,2,3,4,5,6,7,8,9,10,11,12,13,14,15,16,17,18,19,20,21,22,23,24,25,26,27,28,29,30,31,32,33,34,35,36,37,38,39,40,41,42,43,44,45,46,47,48,49,50,51,52,53,54,55,56,57,58,59,60,61,62,63,64,65,66,67,68,69,70,71,72,73,74,75,76,77,78,79,80,81,82,83,84,85,86,87,88,89,90,91,92,93,94,95,96,97,98,99,100,101,102,103,104,105,106,107,108,109,110,111,112,113,114,115,116,117,118,119,120,121,122,123,124,125,126,127,128,129,130,131,132,133,134,135,136,137,138,139,140,141,142,143,144,145,146,147,148,149,150,151,152,153,154,155,156,157,158,159,160,161,162,163,164,165,166,167,168,169,170,171,172,173,174,175,176,177,178,179,180,181,182,183,184,185,186,187,188,189,190,191,192,193,194,195,196,197,198,199,200,201,202,203,204,205,206,207,208,209,210,211,212,213,214,215,216,217,218,219,220,221,222,223,224,225,226,227,228,229,230,231,232,233,234,235,236,237,238,239,240,241,242,243,244,245,246,247,248,249,250,251,252,253,254,255,256,257,258,259,260,261,262,263,264,265,266,267,268,269,270,271,272,273,274,275,276,277,278,279,280,281,282,283,284,285,286,287,288,289,290,291,292,293,294,295,296,297,298,299
risk,0.026836,0.63977,0.81036,0.33189,-0.12321,0.29377,0.2824,0.13862,0.0936,-2.4585,0.25885,0.012094,-0.49644,-0.18145,-0.30886,-0.19482,0.15416,-0.23218,-0.032857,-0.21387,-0.11506,-0.17751,0.4207,-0.25054,-0.55771,0.21248,0.21796,0.00036035,-0.41789,0.084693,-0.39333,0.26516,0.081672,-0.92693,-0.39411,0.26319,-0.63467,-0.20773,0.050547,0.0039696,0.14877,-0.35585,0.21003,0.0098462,-0.50198,-0.039045,0.012262,0.022689,0.051863,0.0036197,-0.20368,-0.68871,0.025963,-0.41105,0.10204,-0.052745,-0.68074,0.16842,0.070343,-0.016866,0.067514,0.36264,0.24385,-0.024698,-0.55151,0.13315,0.17499,-0.049905,-0.45014,0.29198,-0.20387,0.11059,0.27242,-0.13387,-0.32301,-0.36626,-0.19213,0.52986,-0.42295,-0.32605,0.076792,-0.25554,-0.073918,0.099971,0.01592,0.0020541,0.010126,0.14955,-0.58594,0.0021052,-0.26675,0.58077,-0.5673,0.10496,0.27592,0.32442,-0.16225,-0.06627,0.071727,-0.64104,-0.16647,0.053573,0.10052,-0.36788,0.28921,0.57879,-0.10877,-0.12523,0.033179,0.13309,-0.6246,-0.30238,-0.61865,-0.078674,0.6167,0.54166,0.62646,0.027234,-0.13018,-0.48117,-0.17953,-0.3087,-0.035895,0.93876,0.31482,-0.3683,0.24955,-0.83567,-0.10856,-0.032361,0.28885,0.098133,-0.44069,-0.16449,-0.16578,0.078426,-0.4559,-0.29527,-0.18468,0.047345,-0.23303,0.011923,0.53431,0.25433,-0.58317,-0.19854,0.17505,0.31019,-0.21025,0.083397,-0.019165,-0.44093,0.44982,0.1601,-0.34073,0.21887,0.076846,0.44219,-0.19327,-0.093053,-0.087599,-0.077899,-0.55303,0.065083,0.07765,-0.22061,0.40476,-0.16821,0.11645,0.25908,0.26761,0.015822,-0.11464,-0.19523,-0.080941,-0.43296,0.35728,-0.15289,0.42086,0.36093,-0.47099,-0.66008,0.14183,-0.13134,-0.24267,-0.041235,0.15881,-0.7313,-0.023062,-0.3797,-0.20693,0.16524,0.28961,0.31366,0.0728,-0.63669,0.64772,-0.73579,0.4641,0.4258,0.28025,0.3431,-0.38293,0.57753,-0.021633,0.79165,-0.090767,0.012132,0.34171,0.3746,0.040999,-0.38594,-0.63854,-0.064396,0.49968,-0.19634,0.46038,-0.010358,-0.11183,-0.18241,-0.55821,0.16694,-0.15017,-0.10123,0.10044,-0.16415,-0.13174,0.45635,0.086769,0.27187,-0.48327,0.3096,-0.18724,0.19178,-0.1887,-0.36312,-0.50785,0.13879,0.36855,-0.018496,-0.092098,0.11575,0.99845,0.042408,-1.2383,0.24893,0.54853,-0.33162,0.10918,0.11505,-0.12653,0.29749,-0.26025,-0.50657,-0.065559,0.48407,-0.30662,-0.1312,0.18268,0.43008,0.087966,-0.61851,-0.35063,0.52313,-0.16687,0.17212,0.067129,-0.086585,-0.39704,0.13814,0.010737,0.56542,-0.088591,0.1252,-0.22665,0.017361,-1.7172,-0.079755,0.18726,-0.068234,-0.28623,-0.10524,-0.12356,0.072666,0.40358,0.44376,0.11584,0.0048145,-0.1355,0.012503,-0.20033,-0.18477,0.11603,-0.39978,0.25544,-0.19467,-0.3665,-0.010547,0.0084924,-0.49842
crisis,0.69844,0.12163,0.053337,0.20584,0.56355,0.56151,-0.078193,-0.23753,0.26606,-2.5405,0.062063,0.4601,-0.16384,-0.32092,-0.014597,-0.42135,-0.084181,-0.038261,0.24228,-0.29131,-0.361,0.48283,0.46098,-0.67801,0.074788,0.40007,0.083423,-0.34507,-0.093033,0.38823,-0.17823,0.18537,-0.38628,-0.2074,-0.34496,-0.41969,-0.10643,0.30446,0.019075,0.41738,-0.1957,-0.58456,0.086947,-0.060844,0.024699,0.086916,-0.57321,-0.31321,-0.41184,0.27694,0.20033,0.061085,0.083739,-0.16212,0.12334,-0.090297,0.020551,0.74338,0.012127,0.11549,0.20932,-0.29868,-0.031821,-0.12238,-0.34828,0.076385,-0.071804,-0.06012,-0.17882,-0.763,-0.23273,0.19992,-0.46009,-0.0044762,0.16873,-0.23138,-0.24536,0.076407,-0.02321,-0.31817,0.23681,-0.51539,-0.0044785,0.86875,0.7019,-0.52634,-0.0025295,0.25004,-0.3026,-0.32298,-0.13818,0.042907,-1.1048,-0.22609,-0.087137,-0.030262,-0.065041,0.43765,0.32516,0.032088,-0.016856,0.19305,-0.33376,-0.14035,0.43156,-0.049881,-0.18287,0.27197,0.21197,0.098326,0.22311,-0.35402,-0.41299,0.1562,0.80163,-0.60745,0.54732,0.04807,-0.10464,-0.88849,0.20665,-0.77047,-0.20082,0.31589,-0.12457,0.30786,0.076087,0.070076,0.12369,-0.28312,0.26109,0.096917,0.11843,-0.1347,0.10308,-0.048145,-0.98743,0.47282,-0.10988,-0.27838,-0.13707,0.068614,-0.45793,0.31014,-0.2416,0.49132,0.085939,-0.3846,-0.057427,0.25477,0.30056,-0.06776,0.36366,0.76029,0.47747,0.39034,0.081139,0.096553,-0.24995,0.28688,-0.38498,-0.030447,-0.16542,0.046997,-0.38922,-0.11683,0.17225,-0.13741,-0.044602,0.048166,-0.33334,0.72797,-0.37669,-0.43971,0.023352,0.14905,-0.0093377,-0.11202,0.66147,0.64263,-0.16489,-0.518,0.00463,0.049838,-0.66829,0.19402,-0.37117,-0.2572,-0.47153,-0.10585,-0.12328,0.2277,-0.034004,-0.10245,-0.0068817,0.058718,0.41224,-0.27495,0.18176,0.71929,0.44109,0.23161,0.28198,0.397,0.36906,-0.19954,0.0514,-0.21988,-0.7098,0.27476,-0.24362,-0.10292,0.29852,-0.1399,0.91241,0.10071,0.4508,-0.79769,-0.13132,0.23207,0.22943,-0.22596,-0.28386,0.16458,0.44581,-0.16959,0.28344,0.29229,-0.27887,0.16161,-0.045408,0.36242,-0.21374,0.13291,0.098903,0.33534,0.59048,-0.35554,0.59735,-0.093066,-0.091498,0.25562,0.32961,-0.15255,-0.70683,-0.13818,0.47396,0.020011,0.27013,0.1393,-0.067074,0.20734,-0.21743,0.41725,0.41961,-0.57319,-0.67931,0.16085,0.27333,0.12154,-0.010161,-0.54287,-0.1694,0.12849,0.0089201,-0.13899,0.13287,-0.030931,-0.041315,-0.10082,-0.57064,0.86339,-0.30469,0.12253,0.91848,-0.20929,-1.2345,0.13335,1.3577,-0.31143,0.13525,-0.42118,-0.1171,-0.35206,0.82632,-0.45153,-0.27245,-0.027819,0.092808,0.030053,-0.37786,-0.19869,0.22822,-0.1705,0.51233,0.81322,0.17527,-0.12955,-0.14729,-0.3227
uncertainty,0.11521,-0.40229,0.59661,0.1886,0.048342,0.12724,0.16508,0.050612,0.014485,-1.8567,0.29868,0.094843,-0.32381,-0.23292,0.080911,-0.34291,-0.3608,0.27767,0.22931,0.43505,0.29115,-0.052337,0.076858,-0.25057,-0.09104,0.18108,-0.12512,0.41654,-0.077243,0.046832,0.27681,0.23927,-0.076324,-0.0094585,-0.22583,0.31994,-0.51691,0.28701,-0.078748,0.24832,-0.090645,-0.39363,0.21835,0.15614,0.069007,-0.63669,-0.3599,-0.30295,-0.21016,0.17448,0.75223,-0.29969,-0.23232,-0.12818,0.33648,-0.16307,0.043341,0.40704,0.13912,0.58921,0.39985,0.32531,-0.09468,-0.33816,-0.37175,-0.40868,0.081644,-0.11764,0.21894,0.12712,-0.4585,0.67159,-0.13394,-0.61842,-0.06533,-0.012248,-0.047521,0.11647,-0.23491,0.16789,-0.15053,-0.66424,0.028012,0.50139,0.24952,-0.082363,0.70437,0.11566,0.067241,0.33708,-0.013489,-0.41578,-0.89621,-0.26086,-0.011818,0.18786,-0.428,-0.11343,0.1587,-0.21838,-0.0050235,0.060134,-0.27158,-0.19551,-0.22602,0.4904,-0.12801,-0.11271,-0.018171,0.74461,-0.37708,-0.61694,-0.49437,0.028211,0.72951,0.26883,0.4263,-0.12515,0.058402,-1.0515,0.26184,-0.32192,0.035534,0.64871,0.68011,-0.11787,0.14343,-0.21211,-0.34278,0.36452,0.30128,0.50237,-0.28279,-0.047284,-0.016691,0.14027,-0.99023,-0.059271,0.39152,-0.22221,0.015558,-0.14215,-0.082264,0.33204,-0.41144,-0.45191,-0.22399,-0.5241,-0.16651,0.031471,-0.4922,-0.1524,-0.33977,0.89817,0.20606,-0.011493,0.032296,0.44106,-0.50245,0.42671,0.068706,-0.20802,-0.18704,0.24842,0.38613,0.044064,0.37966,0.51032,-0.68115,0.051192,0.19604,0.054556,-0.51605,-0.58526,0.063458,-0.039048,0.19887,-0.053655,-0.019337,0.57703,-0.038926,0.18286,-0.17768,-0.026841,-0.10059,0.296,-0.048555,-0.4341,-0.70091,0.68178,-0.17129,-0.4131,-0.17584,0.0021069,-0.25261,-0.56501,0.020932,0.16393,-0.062004,0.0036858,0.23271,0.26643,-0.29227,0.24447,0.39483,0.12253,0.19461,-0.025037,-0.055457,0.22601,0.36715,0.27342,0.48403,-0.74025,-0.059833,-0.46609,0.51018,-0.16129,0.23577,-0.2574,-0.19755,-0.20775,-0.09918,0.26052,0.14738,0.14405,0.26054,0.29275,0.35192,-0.11028,0.13302,0.53849,0.32918,0.2665,-0.42933,0.080337,-0.14464,-0.19666,0.073928,0.22668,0.12492,0.40525,0.29126,0.50529,-0.95642,-0.70223,0.26028,0.11513,0.41316,-0.45756,-0.11904,0.26786,0.11867,-0.078795,-0.5877,0.34924,-0.62978,0.3898,0.2208,0.38798,0.36215,-0.3312,-0.14562,0.081705,0.25029,0.11628,-0.24463,0.17777,0.027375,-0.54014,-0.072306,0.79317,-0.42514,-0.081734,0.088203,0.02389,-0.39085,-0.21448,1.0022,0.1334,-0.4017,-0.029811,-0.68612,-0.079199,0.84135,-0.79751,0.38011,0.30312,0.41368,-0.27441,0.61221,0.36817,0.46727,-0.073069,0.13257,-0.070647,-0.54903,0.2643,-0.22415,0.14404
loss,0.53542,0.65469,0.013502,0.19725,-0.45942,-0.39567,0.2903,0.29739,0.10061,-0.99368,-0.02494,0.04086,-0.96311,-0.1041,0.017487,-0.28501,0.093979,0.17972,-0.76716,-0.29325,0.068131,-0.47298,0.070552,0.38142,-0.13526,-0.32868,0.11172,-0.30545,0.29592,0.43615,-0.14161,0.54535,-0.53263,-0.37448,-1.5334,-0.3392,0.14783,0.33884,-0.06793,0.13725,0.27261,0.16183,-0.088053,-0.31597,-0.31965,-0.3107,-0.0018307,0.36082,-0.089026,0.35126,0.021103,-0.10754,0.081355,-0.17268,-0.37306,-0.18803,0.52331,0.17778,0.50797,-0.054796,-0.44388,-0.38193,-0.13289,-0.20124,0.17965,-0.5972,-0.40186,-0.23409,0.26242,-0.16094,0.033392,0.094809,0.48713,0.2121,-0.38512,-0.2588,0.094726,-0.052382,-0.76491,0.17145,-0.72106,0.039549,-0.24254,-0.39707,-0.16467,0.26579,0.18683,0.075838,-0.00016086,0.43075,0.33349,0.17763,-0.42244,-0.30168,0.051979,-0.25612,-0.45333,-0.083137,0.061974,-0.4464,0.49692,0.11653,0.23252,-0.51453,0.35139,0.20632,0.35754,-0.26306,-0.36583,0.047467,-0.3091,-0.63854,-0.03641,0.024482,0.27303,0.56355,0.59312,0.52549,0.24978,-0.13162,0.13639,-0.53902,-0.38414,0.33062,-0.2683,-0.33477,-0.32643,-0.22077,0.15241,0.36988,0.20372,0.89885,0.064169,-0.10177,-0.020038,0.28217,-0.018441,0.38645,-0.070709,0.37519,0.23117,-0.015189,0.41802,0.85344,-0.34291,0.58241,-0.31102,-0.13636,0.20624,-0.20713,0.2626,-0.4745,-0.64723,-0.097034,0.29867,0.56277,-0.1873,0.76917,-0.5344,-0.056098,-0.32487,-0.39546,0.3536,-0.080138,0.02759,0.62328,0.40364,-0.29335,-0.37653,0.48332,0.23726,-0.042153,-0.26977,-0.1836,-0.53791,-0.57994,0.54369,0.20946,0.44891,0.88409,0.68276,0.026418,-0.028619,0.055756,-0.41245,0.27282,-0.29413,-0.039277,-0.17493,0.28282,-0.048461,0.27858,-0.49984,-0.26599,-0.2349,0.14215,0.82584,-0.27866,0.53176,0.41717,0.92605,0.24506,-0.42292,-0.55574,-0.25593,-0.032703,-0.54985,-0.055049,-0.24835,-0.2676,-0.60082,0.020604,-0.51578,0.59653,0.041701,-0.019915,0.22728,-0.20841,0.4528,-0.26737,0.024795,0.072663,-0.18823,0.50931,-0.17359,0.11021,0.2781,0.18443,-0.19168,-0.10318,-0.54586,0.59018,0.0035414,-0.18269,-0.11196,-0.53893,0.5246,0.37977,0.16744,0.24616,0.22892,-0.025736,0.4298,-0.37376,-1.0172,-0.0013747,0.5707,-0.42714,0.5018,0.0082763,0.36515,0.58121,0.1998,-0.33337,-0.25765,0.5536,-0.032883,0.2974,0.013419,-0.41037,-0.02656,-0.31816,-0.13801,0.68755,-0.24119,0.47643,0.22653,-0.33033,-0.042726,-0.069579,0.01511,-0.3138,0.11948,-0.17483,-0.050978,-0.61945,-1.2099,0.015711,0.62227,0.83097,-0.63119,0.95224,0.47118,-0.083971,0.25145,-0.37561,-0.36416,-0.59388,0.061892,0.21069,-0.32037,-0.15374,-0.53197,-0.22569,0.43252,0.56401,-0.492,-0.10579,-0.025549,-0.40533
hazard,-0.17533,0.34801,0.7406,0.15534,-0.74035,0.19041,0.50111,0.003893,0.067389,-1.0421,0.5959,-0.021535,-0.099879,-0.07663,0.49909,0.15913,-0.12848,-0.0049787,-0.0337,0.55276,0.18971,-0.094941,0.31491,0.11148,-0.43378,0.093683,-0.48899,-0.10213,0.022361,0.19632,0.31885,0.15579,0.10322,-0.25735,0.2986,0.64002,-0.37305,-0.094526,0.52648,0.22891,0.18658,-0.21296,0.70338,0.45894,-0.28457,0.10693,0.6866,-0.42312,-0.15941,-0.15733,-0.10049,-0.17862,-0.25,-0.48877,0.16661,0.057644,-0.4232,-0.41387,0.36096,0.15943,-0.41931,0.037409,0.29664,0.1777,-0.23597,-0.0022917,-0.0021486,-0.043004,-0.57405,-0.47344,-0.064612,0.18246,-0.084126,-0.19292,-0.82296,-0.065054,-0.55639,0.84942,-0.15631,-0.46685,0.39708,-0.24622,0.626,0.27162,-0.1012,-0.35054,0.11252,0.27565,-0.76519,-0.33396,-0.3417,0.79573,-0.37445,-0.35669,-0.032314,0.37158,0.15182,0.045997,0.32536,-0.70849,0.16099,0.33006,-0.32111,0.43536,-0.047784,0.23418,-0.51121,-0.10944,-0.63556,-0.22794,-0.1852,-0.31412,-0.16686,0.22084,0.37579,0.013658,0.68454,0.32332,0.18716,0.17934,-0.13349,0.29026,-0.075969,0.54634,-0.39749,-0.16509,-0.035277,-0.99482,0.31419,0.29958,0.75187,0.25346,-0.012625,-0.57461,0.3478,0.21739,0.21483,-0.35956,0.0082237,0.12848,-0.22742,0.45093,0.57948,-0.051592,0.1665,-0.42852,0.7033,0.646,-0.18104,-0.22197,0.092643,-0.34036,0.027807,0.16285,0.14279,0.32244,0.48737,-0.23225,0.12216,-0.15351,-0.029765,-0.096854,-0.38807,-0.53723,0.11459,-0.32441,0.017475,0.061896,0.17901,0.43756,0.13869,0.32403,0.4596,0.23912,0.17976,-0.037709,0.2597,-0.22156,0.49982,-0.30974,-0.5029,-0.17348,0.090956,0.21901,-1.2,-0.34503,0.34863,-0.43674,0.2095,0.097075,0.049162,-0.052649,-0.015709,0.31309,0.22165,-0.234,0.062311,-0.52322,0.35849,0.19268,-0.1145,1.1464,-0.052479,-0.38332,0.53418,0.58693,0.011371,0.17247,-0.044982,0.66298,-0.35522,-0.23665,-0.2067,-0.3118,0.47204,-0.071742,0.055369,0.24374,0.39594,-0.58052,-0.16555,0.21594,0.15545,0.41472,0.64931,0.16715,0.39635,0.52307,0.12376,0.35547,-0.45486,0.41775,-0.41622,0.0010856,-0.3182,-0.087763,-0.2576,0.55346,0.53754,-0.075211,-0.0099832,-0.3982,0.40667,-0.39767,-0.71988,0.44266,0.1389,-0.64964,0.19279,0.21322,-0.22793,-0.29646,-0.24242,-0.67446,0.032061,0.52047,-0.14776,-0.34137,-0.048557,0.073753,0.030628,-0.9337,0.86005,0.022022,-0.18226,-0.30595,0.060408,-0.41026,0.23042,-0.31518,0.68308,0.70317,-0.23457,0.31076,-0.030426,0.29835,-0.47203,0.34715,-0.24446,0.018,-0.35838,0.25632,0.020343,0.091769,0.66102,0.25265,0.31082,-0.68119,0.069371,0.16555,-0.10898,0.59289,0.68169,0.02134,0.10752,-0.40656,0.51544,0.19259,0.19305,-0.68027
threat,-0.17407,0.2486,0.24174,-0.021358,-0.08824,0.29629,-0.36505,0.24058,0.35089,-2.0682,0.57374,-0.086309,0.018033,0.18287,-0.13537,-0.21938,-0.14715,0.21913,-0.56524,0.037694,0.12124,-0.31014,0.44782,-0.2496,-0.36999,0.046844,0.073383,-0.072757,-0.51754,0.16217,-0.042576,0.14196,-0.24098,-0.53579,-0.13161,-0.088553,-0.61333,-0.32831,0.16787,0.49489,-0.040918,0.1842,0.26726,0.45158,0.16843,0.061104,-0.050649,-0.14942,0.18612,-0.04389,-0.011796,-0.17821,-0.23173,-0.2049,0.25628,-0.0033526,-0.53221,0.43426,0.38885,0.356,-0.25856,0.38151,-0.32032,0.26369,-0.85416,0.15764,0.026578,0.0019972,0.012126,-0.26617,0.14855,0.15919,-0.14587,-0.4316,0.0040854,-0.044382,-0.19158,0.55114,-0.33742,0.45727,-0.078802,-0.25983,-0.28776,0.28413,0.38855,-0.33557,-0.2903,0.32105,-0.15134,0.031399,-0.4965,-0.19089,-0.0047447,0.011526,-0.020274,0.18181,0.058909,-0.11588,0.42981,-0.25671,-0.24625,0.070268,-0.052569,0.31402,-0.11656,-0.056423,-0.056178,-0.12803,0.038566,0.1594,-0.3606,-0.21366,-0.37257,0.26499,0.55336,0.42675,0.51622,0.39226,0.30585,-0.7595,-0.25736,-0.42673,-0.33106,0.12928,-0.18097,-0.22733,-0.16034,0.055695,0.075981,0.021967,0.1341,0.086117,-0.56223,-0.9814,0.065742,-0.18986,0.11217,0.14664,0.38986,0.20089,0.11108,0.1517,-0.022589,-0.048548,-0.64182,0.058437,0.21847,-0.1268,-0.44164,-0.67708,0.38973,-0.7949,-0.034146,0.57452,0.12242,-0.022843,0.11433,0.097263,-0.17435,0.075948,0.44711,0.49522,0.055839,0.040448,-0.11826,-0.52832,-0.34676,-0.011373,0.043329,-0.22204,0.52879,-0.085032,-0.19858,-0.20635,0.12559,-0.28848,0.11324,-0.086777,0.88142,-0.093155,-0.19649,-0.41919,0.031322,0.033866,-0.59123,-0.19401,-0.28366,0.039232,-0.24797,0.16039,-0.15842,-0.14216,0.25491,0.24528,0.08318,-0.17181,0.078292,-0.60068,0.52745,0.16823,0.54811,-0.14237,-0.46647,-0.32121,-0.097125,0.073713,0.095614,-0.5485,-0.18625,0.23866,-0.52269,0.23473,0.16752,0.027882,0.24607,-0.57103,-0.18865,0.049806,-0.056285,0.34362,0.14875,0.23987,0.23668,0.051294,0.2459,-0.27205,0.34718,0.2141,0.23403,0.034303,-0.020146,0.10611,0.0076645,0.05675,-0.83433,-0.10171,-0.0094461,0.061308,0.72958,-0.098211,-0.32707,0.15566,0.37446,-0.025913,-0.43344,-0.024692,0.41997,-0.25917,-0.2098,0.025812,-0.45305,0.19038,-0.085251,0.21093,0.40215,0.035094,-0.13236,-0.2707,0.017133,0.33398,0.065639,-0.64859,0.085521,0.15747,-0.49035,0.10324,-0.30162,-0.09076,-0.076905,-0.022974,0.66225,0.74339,-0.65157,0.27393,-0.15495,0.20823,-1.8841,0.27525,0.96204,-0.26774,0.096565,0.062683,-0.15002,0.23729,0.48073,-0.53467,0.28782,-0.12302,0.091883,0.059628,0.12822,-0.1137,0.42342,0.04803,-0.2106,0.11591,0.082982,-0.19167,-0.35313,-0.49284
danger,-0.082949,0.36991,0.36235,0.20279,-0.44097,0.31672,0.038106,0.28356,0.39855,-1.5988,0.39023,-0.18008,-0.23663,-0.028334,0.048685,-0.17581,-0.19666,-0.10639,-0.25742,0.22327,0.15013,0.11918,0.094456,-0.091713,-0.15316,0.15073,0.11504,0.24446,-0.55985,0.43563,0.033053,0.032385,-0.34158,-0.77131,-0.18621,0.10666,-0.66054,-0.35299,0.32531,0.24646,0.0081035,-0.24398,0.30638,0.38018,-0.11867,0.2314,0.41507,-0.16766,0.13086,-0.22113,0.084568,-0.28213,-0.1669,-0.17526,-0.068536,0.040738,-0.33428,-0.025421,0.43019,0.39365,-0.039698,0.23296,0.17876,0.22823,-0.48233,0.17656,0.2432,-0.051874,-0.28833,-0.21614,0.022446,-0.038087,-0.11874,-0.35079,-0.21735,-0.22231,0.22637,0.7461,-0.24865,-0.033278,0.20448,-0.28898,-0.0096999,0.52244,0.16065,-0.19938,-0.073098,0.36429,-0.36877,-0.053438,-0.17862,0.096987,-0.29665,-0.14335,0.17666,0.10626,0.094401,-0.081919,0.53675,-0.76038,-0.14856,0.21629,-0.10836,-0.0037492,0.06951,0.32606,0.09021,-0.080907,0.051217,0.38056,-0.6349,-0.011976,-0.29718,-0.27961,0.69129,0.29197,0.50163,0.11394,0.087102,-0.44757,-0.35635,-0.16496,-0.37193,0.56139,-0.010705,-0.38212,-0.057291,-0.37726,0.184,0.044099,0.44064,-0.078411,-0.098444,-0.46304,-0.19604,0.18038,-0.052672,-0.12121,0.069148,0.16013,-0.1081,0.39523,-0.12374,0.22454,-0.2808,-0.27227,0.45083,-0.11814,-0.65389,-0.51801,0.062624,-0.16755,-0.32136,0.26164,0.64064,0.010772,0.12938,0.30337,-0.06486,0.22357,0.45751,0.11269,-0.24284,-0.19265,-0.021523,-0.02575,-0.040507,-0.14923,-0.17244,-0.023616,0.3904,-0.075598,0.20458,-0.29313,0.1572,0.1695,0.24906,0.18949,0.53913,0.31047,-0.15707,-0.47785,0.15144,-0.22923,-0.49225,0.018595,-0.11128,-0.65772,0.30145,0.29549,0.19767,-0.50525,0.065103,0.45323,0.049312,-0.15633,-0.15451,-0.5813,0.4063,0.44793,0.71336,0.40568,-0.19191,0.00025076,-0.10632,0.25394,0.33117,-0.42833,0.12749,0.15002,-0.5219,-0.12672,0.13627,-0.1931,0.80856,-0.34556,0.062746,0.022086,0.20924,0.42042,0.06741,-0.17154,0.21221,-0.18155,0.42059,-0.34057,0.31929,0.19985,0.023441,0.04423,-0.19895,-0.15868,-0.34906,-0.17556,-0.74792,-0.47115,-0.24033,0.33136,0.68168,-0.43286,-0.30305,0.090988,0.30289,0.18907,-0.56935,0.28206,0.5661,-0.077843,0.082808,0.24203,-0.53387,0.23228,-0.087411,-0.26172,-0.0037086,0.42933,0.061659,-0.68357,-0.10595,0.31625,0.23332,-0.65303,-0.020958,0.074697,-0.36912,0.39656,-0.082867,-0.33929,-0.11795,-0.12631,0.1405,0.57595,-0.48276,0.13153,0.0024181,0.37197,-1.3597,0.24255,0.43123,-0.066275,-0.027413,0.32905,-0.17046,-0.069353,0.50174,-0.27382,0.16986,-0.065511,0.23861,0.19658,-0.11368,0.18998,0.5189,-0.34981,0.065799,-0.35979,0.055473,0.21009,0.16339,-0.32619
exposure,0.045615,0.47587,-0.0072616,-0.16963,-0.16602,-0.18485,-0.29441,0.22007,0.35246,-1.8199,-0.055769,0.051751,-0.43255,-0.29178,-0.03945,-0.80731,-0.57525,-0.19594,-0.31651,-0.42303,-0.37361,-0.37238,0.0031704,-0.28579,0.074498,-0.031757,-0.040596,-0.054614,-0.52302,0.50118,-0.7505,-0.18002,-0.17698,-0.41742,-0.19127,-0.30368,-0.30412,-0.072844,0.85219,0.030558,0.32157,-0.25632,0.038766,0.073416,0.23347,0.0073154,0.076571,-0.18793,0.10426,-0.25627,-0.42081,-0.1299,0.34004,-0.14674,0.18668,0.183,0.2083,-0.67441,0.82078,0.087218,-0.0015442,0.029856,0.28815,0.0026744,0.28271,-0.004856,0.39205,-0.26874,-0.23297,0.42479,0.61476,-0.10256,0.3486,-0.14458,-0.35175,-0.5662,-0.48008,-0.013541,0.42638,-0.39881,-0.42974,-0.16392,0.042776,-0.087575,-0.032856,-0.10785,0.33019,-0.072648,-0.33156,0.065705,-0.30623,0.070862,-0.40097,0.32558,-0.022229,0.13839,-0.24212,-0.30616,0.49507,-0.88597,-0.42444,0.41971,-0.30026,0.37854,0.024308,0.21593,-0.46787,0.14584,-0.19773,0.54329,-0.19507,-0.24457,-0.01329,-0.011265,0.31503,0.37474,0.71858,0.20867,-0.22687,-0.28554,-0.17704,-0.33392,-0.36593,0.51471,0.41488,0.05043,0.0072754,-0.0049959,-0.31945,0.13833,0.40755,-0.2273,-0.14735,-0.37313,0.21713,-0.23284,-0.35324,0.14728,0.13062,0.37923,-0.41862,-0.11552,0.6071,-0.14931,0.18219,-0.22998,0.11309,0.11768,0.20338,0.1203,-0.066357,-0.48866,0.1965,0.41464,0.23262,0.3547,0.1774,0.47508,0.0070346,-0.21607,0.2831,-0.32144,-0.030473,0.37032,0.47436,0.048555,0.34605,-0.29783,-0.12024,0.23122,0.35958,0.32698,-0.55099,0.45878,-0.19163,-0.45133,0.00084904,-0.25152,0.47486,0.36446,0.0082632,-0.70768,-0.39597,-0.00080368,-0.89377,0.19131,0.7343,-0.63309,0.094034,-0.28487,0.056407,0.37177,-0.33143,-0.16726,-0.41774,-0.81986,1.0475,0.22081,0.016449,0.23813,0.039468,0.40707,0.015624,0.2359,-0.03637,1.0211,-0.59005,0.43555,0.14968,0.51718,-0.055741,-0.024767,-0.48343,0.21224,0.29579,-0.044631,0.53232,-0.40272,0.085643,-0.41498,0.0031089,0.2312,-0.19385,-0.41937,0.11215,0.4312,-0.75695,-0.10678,0.22244,0.14876,0.23619,0.4055,0.15065,-0.094237,-0.79064,-0.65466,0.32467,0.51027,-0.093701,-0.17908,0.30056,-0.13675,0.39336,-0.32149,-0.93587,0.034918,-0.15979,-0.62985,-0.24744,-0.084057,-0.2588,-0.34796,-0.17947,-0.34181,-0.18849,0.14766,-0.38934,0.031584,-0.17533,0.24515,0.28224,0.04675,-0.27918,-0.078931,-0.17426,0.066429,-0.061645,0.11207,0.31684,-0.32271,0.15215,0.018505,-0.17928,-0.096572,-0.2537,-0.27605,-1.3958,-0.12803,-0.33871,0.33083,-0.49417,-0.33398,-0.11851,-0.08992,0.26216,0.46141,0.040504,-0.19532,-0.33722,0.029303,-0.31533,0.32474,0.024978,-0.81539,0.68051,-0.31079,-0.092491,0.62991,-0.31434,-0.32504
vulnerability,-0.0063143,0.19768,0.41187,-0.2016,-0.17869,0.63985,-0.10396,-0.57689,0.067091,-1.3882,0.25921,0.067576,-0.33397,-0.048657,-0.14949,-0.11638,0.32535,-0.3734,-0.47839,-0.18199,0.24877,0.3066,-0.067073,-0.19747,-0.20981,0.50181,0.49943,0.58016,-0.79147,0.32504,-0.07281,0.32982,-0.65708,-0.27092,0.40375,0.14212,-0.85542,0.39312,0.097164,-0.38766,0.75113,-0.20065,0.40102,-0.20245,-0.10874,0.12031,0.071158,-0.31697,-0.30446,-0.22505,0.57764,-0.098861,0.060858,-0.40114,0.10783,-0.42886,-0.19967,-0.0064389,0.34236,0.34528,-0.041109,0.39613,-0.033446,-0.1471,-0.087358,0.36409,0.14347,0.39997,0.00051041,0.22016,-0.57217,0.16348,0.36269,-0.51843,0.0035279,-0.22942,-0.11584,0.31492,-0.52847,-0.17328,0.13323,-0.35969,-0.18755,-0.29075,0.12299,0.038789,-0.55193,0.0045306,-0.14468,-0.27809,-0.45519,0.19176,-0.088553,-0.16213,-0.25974,-0.092461,-0.19247,-0.35065,0.42599,-0.55017,-0.080197,-0.083708,0.00051902,-0.31896,0.26612,0.25044,0.0094059,0.50579,0.073739,0.17447,-0.021512,-0.30419,-0.19646,0.15117,0.31559,0.42893,0.79842,0.81543,0.23431,-0.51434,-0.42778,-0.46036,-0.19563,0.34142,-0.07525,-0.43529,-0.53121,-0.29573,-0.20419,0.70592,0.43045,0.12765,-0.44355,0.090233,-0.50667,-0.029755,-0.17897,0.12999,0.29438,0.28408,-0.4787,0.088798,-0.13455,0.2453,-0.10211,-0.43341,0.37484,0.31723,-0.5089,0.059732,-0.36795,-0.51107,0.37898,0.31498,-0.043225,0.052047,0.068126,0.73751,0.32746,-0.32067,0.067631,-0.23585,-0.17073,-0.20553,-0.1097,-0.052857,-0.3704,0.13021,0.23643,0.094943,-0.1474,0.0078743,0.017932,-0.04119,-0.24674,-0.10309,0.30165,0.044322,0.12837,-0.0074376,-0.55786,-0.56533,0.18021,0.32824,-0.082377,0.41664,0.70873,0.043749,0.35008,0.56097,-0.42981,-0.46863,-0.34049,-0.040006,-0.12859,0.093163,0.35474,-0.48329,-0.033945,0.2519,0.06085,0.04163,-0.08735,-0.024011,0.18202,0.31381,0.092064,0.13613,-0.16182,0.36596,0.075951,0.0027254,0.087151,-0.29091,0.011876,-0.27999,0.60803,-0.03811,-0.23037,0.24356,-0.57243,0.67837,0.47149,0.42922,0.12931,-0.18947,-0.20622,0.021137,-0.52788,-0.23974,-0.33326,0.30789,-0.3795,0.10618,-1.0861,0.19672,-0.11192,0.27754,0.34672,0.12532,-0.045014,0.23572,0.21555,0.11751,-0.77425,-0.061922,-0.060224,-0.62545,0.22436,-0.66226,-0.27414,0.14769,0.08422,-0.25845,-0.12969,0.1271,0.12584,0.43834,-0.24278,0.61122,0.053456,-0.28265,-0.12352,0.28825,-0.022303,0.1103,-0.08228,-0.32623,0.054628,-0.27164,0.46975,0.057676,-0.53363,0.0095627,-0.48924,-0.38985,-0.16174,0.029001,0.46087,0.17146,-0.69254,0.10283,-0.071301,0.33076,0.44301,-0.51848,-0.22939,-0.089865,0.51575,-0.32867,-0.19622,-0.083158,-0.13886,-0.1989,-0.20448,0.063742,-0.67048,0.49574,-0.51551,-0.44469
